<?xml version="1.0" encoding="utf-8"?>
<Root>
  <ActivationFunctions>
    <Fn id="0" name="LogisticFunctionSteep" prob="1" />
  </ActivationFunctions>
  <Networks>
    <Network id="659231" birthGen="270" fitness="2.2808687633918705">
      <Nodes>
        <Node type="bias" id="0" />
        <Node type="in" id="1" />
        <Node type="in" id="2" />
        <Node type="in" id="3" />
        <Node type="in" id="4" />
        <Node type="in" id="5" />
        <Node type="in" id="6" />
        <Node type="in" id="7" />
        <Node type="in" id="8" />
        <Node type="in" id="9" />
        <Node type="in" id="10" />
        <Node type="in" id="11" />
        <Node type="in" id="12" />
        <Node type="in" id="13" />
        <Node type="in" id="14" />
        <Node type="in" id="15" />
        <Node type="in" id="16" />
        <Node type="in" id="17" />
        <Node type="in" id="18" />
        <Node type="in" id="19" />
        <Node type="in" id="20" />
        <Node type="in" id="21" />
        <Node type="in" id="22" />
        <Node type="in" id="23" />
        <Node type="in" id="24" />
        <Node type="in" id="25" />
        <Node type="in" id="26" />
        <Node type="in" id="27" />
        <Node type="in" id="28" />
        <Node type="in" id="29" />
        <Node type="in" id="30" />
        <Node type="in" id="31" />
        <Node type="in" id="32" />
        <Node type="in" id="33" />
        <Node type="in" id="34" />
        <Node type="in" id="35" />
        <Node type="in" id="36" />
        <Node type="out" id="37" />
        <Node type="out" id="38" />
        <Node type="out" id="39" />
        <Node type="hid" id="166" />
        <Node type="hid" id="265" />
        <Node type="hid" id="340" />
        <Node type="hid" id="355" />
        <Node type="hid" id="368" />
        <Node type="hid" id="372" />
        <Node type="hid" id="437" />
        <Node type="hid" id="505" />
        <Node type="hid" id="629" />
        <Node type="hid" id="837" />
        <Node type="hid" id="1305" />
      </Nodes>
      <Connections>
        <Con id="41" src="0" tgt="38" wght="-0.84858395115803309" />
        <Con id="44" src="1" tgt="38" wght="2.2179321218281984" />
        <Con id="48" src="2" tgt="39" wght="2.0439608388426218" />
        <Con id="51" src="3" tgt="39" wght="3.6003146646032294" />
        <Con id="52" src="4" tgt="37" wght="2.542518682564153" />
        <Con id="57" src="5" tgt="39" wght="-2.15183696040158" />
        <Con id="61" src="7" tgt="37" wght="3.6976741134076372" />
        <Con id="74" src="11" tgt="38" wght="2.2615601494908333" />
        <Con id="86" src="15" tgt="38" wght="1.2303028106689453" />
        <Con id="108" src="22" tgt="39" wght="0.40479343943297863" />
        <Con id="109" src="23" tgt="37" wght="-2.9144152763067455" />
        <Con id="111" src="23" tgt="39" wght="1.7374995481222868" />
        <Con id="116" src="25" tgt="38" wght="-3.3671051125180371" />
        <Con id="118" src="26" tgt="37" wght="2.1505853193024818" />
        <Con id="125" src="28" tgt="38" wght="-2.4176428038626909" />
        <Con id="129" src="29" tgt="39" wght="3.8921801974356742" />
        <Con id="143" src="34" tgt="38" wght="-1.064120412639044" />
        <Con id="144" src="34" tgt="39" wght="3.7713797786950756" />
        <Con id="145" src="35" tgt="37" wght="-1.7752879988402128" />
        <Con id="150" src="36" tgt="39" wght="2.8115923162549734" />
        <Con id="151" src="32" tgt="37" wght="-3.2049108650535345" />
        <Con id="167" src="29" tgt="166" wght="3.8884063752166322" />
        <Con id="168" src="166" tgt="39" wght="4" />
        <Con id="187" src="23" tgt="38" wght="-0.025813442338258028" />
        <Con id="192" src="2" tgt="38" wght="-1.3783112970002969" />
        <Con id="205" src="19" tgt="38" wght="-0.022134748342113632" />
        <Con id="266" src="29" tgt="265" wght="3.8877623551753739" />
        <Con id="267" src="265" tgt="166" wght="4" />
        <Con id="272" src="10" tgt="38" wght="0.014716818688030878" />
        <Con id="341" src="28" tgt="340" wght="-2.4176428038626909" />
        <Con id="342" src="340" tgt="38" wght="4" />
        <Con id="356" src="2" tgt="355" wght="2.0439608388426218" />
        <Con id="357" src="355" tgt="39" wght="3.99376330095282" />
        <Con id="369" src="34" tgt="368" wght="3.7822415288537741" />
        <Con id="370" src="368" tgt="39" wght="0.616803390905261" />
        <Con id="373" src="0" tgt="372" wght="-0.85282290666771476" />
        <Con id="374" src="372" tgt="38" wght="4" />
        <Con id="438" src="34" tgt="437" wght="3.7822415288537741" />
        <Con id="439" src="437" tgt="368" wght="3.9985141165258118" />
        <Con id="506" src="2" tgt="505" wght="-1.3643595222383738" />
        <Con id="507" src="505" tgt="38" wght="4" />
        <Con id="565" src="7" tgt="166" wght="0.021355906929820777" />
        <Con id="630" src="34" tgt="629" wght="3.7713797786950756" />
        <Con id="631" src="629" tgt="39" wght="4" />
        <Con id="838" src="0" tgt="837" wght="-0.83886385010918929" />
        <Con id="839" src="837" tgt="372" wght="4" />
        <Con id="1306" src="33" tgt="1305" wght="-0.87803663872182369" />
        <Con id="1307" src="1305" tgt="355" wght="4" />
        <Con id="1365" src="30" tgt="355" wght="-0.00021411861093690833" />
      </Connections>
    </Network>
  </Networks>
</Root>