<?xml version="1.0" encoding="utf-8"?>
<Root>
  <ActivationFunctions>
    <Fn id="0" name="LogisticFunctionSteep" prob="1" />
  </ActivationFunctions>
  <Networks>
    <Network id="42192" birthGen="46" fitness="42.391246942208483">
      <Nodes>
        <Node type="bias" id="0" />
        <Node type="in" id="1" />
        <Node type="in" id="2" />
        <Node type="in" id="3" />
        <Node type="in" id="4" />
        <Node type="in" id="5" />
        <Node type="in" id="6" />
        <Node type="in" id="7" />
        <Node type="in" id="8" />
        <Node type="in" id="9" />
        <Node type="in" id="10" />
        <Node type="in" id="11" />
        <Node type="in" id="12" />
        <Node type="in" id="13" />
        <Node type="in" id="14" />
        <Node type="in" id="15" />
        <Node type="in" id="16" />
        <Node type="in" id="17" />
        <Node type="in" id="18" />
        <Node type="in" id="19" />
        <Node type="in" id="20" />
        <Node type="in" id="21" />
        <Node type="out" id="22" />
        <Node type="out" id="23" />
        <Node type="out" id="24" />
        <Node type="hid" id="229" />
      </Nodes>
      <Connections>
        <Con id="28" src="1" tgt="22" wght="2.788475985775988" />
        <Con id="30" src="1" tgt="24" wght="-0.55438764952123165" />
        <Con id="31" src="2" tgt="22" wght="1.0228166850283742" />
        <Con id="38" src="4" tgt="23" wght="-1.1982267686739991" />
        <Con id="44" src="6" tgt="23" wght="-5.0450376700609922" />
        <Con id="48" src="7" tgt="24" wght="-0.44173613117225313" />
        <Con id="51" src="8" tgt="24" wght="-3.297789027895953" />
        <Con id="57" src="10" tgt="24" wght="4.6567388102412224" />
        <Con id="79" src="18" tgt="22" wght="-5.42453284652568" />
        <Con id="84" src="19" tgt="24" wght="-1.7561973175033927" />
        <Con id="122" src="23" tgt="22" wght="2.9148682826198637" />
        <Con id="145" src="15" tgt="24" wght="-0.032205890114419163" />
        <Con id="216" src="11" tgt="22" wght="-4.1191010582469536" />
        <Con id="219" src="5" tgt="23" wght="0.033847489235146383" />
        <Con id="230" src="19" tgt="229" wght="2.7169443331595922" />
        <Con id="231" src="229" tgt="23" wght="7" />
        <Con id="303" src="16" tgt="229" wght="-4.0350669319741428" />
        <Con id="321" src="12" tgt="229" wght="-0.9675767170265317" />
      </Connections>
    </Network>
  </Networks>
</Root>